0.0999003,0.036451,-0.253358,0.806588,-0.742931,-0.887117,-1.18341,-0.683307,-0.0508672,0.519777,-0.539598,-0.100163,-0.598444,-0.513281,-0.481209,0.363618,0.824645,-0.253692,-0.680645,0.830702,-0.112499,-0.799193,-0.0361308,0.0237684,0.453169,0.588502,
-0.262139,0.482286,0.820629,-0.884159,-0.233995,-0.0827719,0.548168,-0.106266,-0.0802792,0.941497,-0.994964,-0.923963,-0.564072,-0.0563575,-0.594708,0.682708,0.262951,-0.500209,0.442736,0.609962,-0.943454,0.366745,0.390501,0.461122,-0.425836,-0.61566,
0.122837,-0.864474,-0.812008,-0.380956,0.769495,0.393167,-0.0588382,-0.179591,-0.186895,0.659394,0.720146,-1.39649,-0.867135,-0.429358,-0.349741,-1.19196,0.679777,1.06012,0.56812,-0.16086,-0.410175,-0.259372,-0.164436,-1.11802,-0.420385,-0.59675,
-0.762384,-0.17896,-0.510792,-0.70966,-0.337878,0.47672,-0.952986,-0.724326,-0.487854,-0.749547,-0.58001,0.74723,-0.149431,-0.0890987,-0.0175519,0.530943,0.143123,0.309957,-0.0752834,-0.759483,0.651169,0.39941,0.267913,-0.12496,-0.581609,-0.668272,
-0.0156045,-0.208519,-0.587338,0.0965415,0.284128,0.285532,-0.386364,-0.921028,-0.716561,-0.399948,0.495957,-1.26585,1.29214,-0.665527,0.361784,-0.454794,1.08793,1.37165,0.296372,-0.923466,-0.297994,0.337809,0.314788,-0.1123,-0.946496,0.249707,
0.100323,0.600504,0.108422,-0.169902,-0.164303,-0.157061,-1.11693,0.657207,0.0115394,0.666231,-0.260458,-0.75134,-0.333775,0.403545,0.675264,-0.468795,0.0159559,-0.219884,-0.179433,0.928828,-0.763539,-0.713016,-0.0774611,0.315778,0.0552546,-0.197288,
-0.965637,-0.933392,-0.400738,-0.632861,0.565506,-0.398684,-0.475622,-0.781765,1.61915,0.288226,-0.603427,0.493588,0.403736,0.444868,1.16415,0.605354,0.960973,-0.321169,0.909061,0.625733,0.261843,0.680065,1.24897,0.795791,0.528936,-0.469221,
0.318205,0.357456,0.155978,0.194706,0.101254,0.313796,-1.15522,0.0998312,-0.903601,-0.721053,-0.654133,0.27384,0.603081,0.931687,0.29363,0.348572,1.00599,0.441536,-0.0774422,0.439532,-0.387167,-0.641139,0.447958,-0.0414337,-0.387803,0.66603,
-0.815273,0.890139,-1.30054,-0.639214,-0.306344,0.0900528,0.301494,-0.775253,-0.938348,-0.315625,0.0862703,-1.69773,1.19315,0.257224,-0.427788,-1.18217,-0.580714,0.811114,0.325713,-0.486046,-0.507277,-0.323501,-0.460637,-0.304759,-0.283853,0.558114,
-0.0323766,0.352981,0.399915,-0.695018,1.00904,-0.228289,-0.529581,-0.888702,-1.26385,-0.65354,0.211432,-0.589727,-0.351206,-0.0153204,0.219507,-0.990316,-0.306965,-0.832638,0.0505621,0.248128,0.745838,0.88053,-0.489384,-0.40433,0.167016,-0.842097,
0.681593,0.425674,-0.68892,0.301625,0.243888,-0.983664,-0.126502,0.588476,-1.1669,0.656286,0.00366482,-0.628047,-0.706287,0.883026,0.00359052,-0.0564396,0.434504,-0.612647,-0.720453,-0.906556,-0.824262,-0.305221,0.0413668,-0.073676,-0.625101,0.697769,
-0.851305,-0.104029,-0.961669,-1.01952,0.579115,-0.464056,0.923911,-0.178259,1.44727,0.854687,0.945178,0.473563,0.0192049,0.737647,-0.301337,0.0204992,-0.555184,0.461763,0.814342,0.849263,-0.745102,0.903146,0.802778,-0.00974646,0.317431,-0.636779,
-0.0688329,-0.766131,-0.0948068,0.729558,1.17484,-0.228023,0.414767,0.481454,0.00796461,0.685836,-0.846816,0.817864,-0.371029,0.215371,0.843082,-0.476469,0.81367,-0.750768,0.759131,-0.983179,0.728334,-0.795115,-0.164441,-0.210808,-0.0742513,0.141074,
-0.646665,0.557336,0.620973,0.717805,-0.293797,-0.208664,-0.406188,0.563823,-0.63376,-0.87017,-0.383394,-0.499405,1.04641,-0.945883,0.678922,-0.958287,-0.45329,0.648585,0.611964,0.254346,-0.899543,0.473168,-0.464932,0.152869,-0.148923,0.511539,
0.388122,0.789924,0.234767,0.796058,0.658659,0.954724,0.571686,0.808648,0.823751,-0.687502,-0.941702,0.248071,1.09163,-0.83913,1.22681,0.254363,-0.8469,0.697524,-0.998351,0.391843,0.130005,-0.17974,0.924754,-0.640921,0.515087,-0.135729,
0.781519,0.330252,-0.176923,-1.10379,0.475836,-0.00578387,0.683553,-0.888349,-0.272205,0.506539,-0.212052,0.404912,0.297986,-1.05103,-0.336513,-0.497396,0.922138,-0.719385,0.834434,-0.350051,-0.976834,-0.64105,-0.653059,0.047425,-0.0445391,-0.589423,
0.350576,-0.731492,-0.351989,0.344551,0.14198,1.01226,0.428966,-0.0722325,-0.196728,0.157021,-0.98591,-0.790185,0.0482996,0.831193,0.479728,-0.319468,-0.947299,-0.474044,-0.143593,-0.34296,-0.530597,0.449287,0.222582,-0.306338,-0.0961262,0.960011,
-0.739078,-0.695927,0.853362,-0.567656,-0.547295,-0.534394,-0.564318,0.439345,-0.321779,-0.331741,-0.170187,-0.599492,-0.608572,0.548859,0.599739,-0.606186,0.939719,0.18073,-0.858755,0.557638,-0.856142,-0.0613563,-0.201361,-0.87746,0.666141,0.717751,
-0.622073,0.614329,-0.389251,0.102017,-0.147058,-0.919616,-0.361991,0.600806,0.446503,0.803435,-0.58758,0.0330794,-0.411838,-0.53207,0.76684,-0.660155,-0.706901,-0.728437,0.624561,-0.384609,-0.437101,-0.933051,0.815483,0.0765233,-0.893877,0.693783,
-0.825021,-0.94518,0.205742,-0.74545,1.23869,0.974332,-0.0130661,-0.752756,-0.0206294,0.71942,0.908299,0.800824,-0.787333,-0.61406,-0.149517,0.930671,-0.853154,-0.229086,0.460133,0.914033,-0.626551,-0.577791,-0.718459,-0.937164,-0.974301,1.01763,
0.405021,0.250764,-0.444621,0.30956,0.487873,0.961332,0.241993,-0.716518,-0.69592,-0.442407,0.348248,-0.894087,0.397225,-0.276452,-0.938312,0.565661,0.949153,0.0179802,0.571146,-0.574533,0.159137,0.844111,-0.0466666,-0.00686563,0.302978,0.498598,
0.0926697,0.877995,0.53297,0.647719,-0.594465,0.679022,-0.947172,-0.855877,-0.355717,-0.620202,-0.236589,-0.555708,-0.330554,-1.01612,0.103371,0.847649,0.898907,-0.590537,-0.437282,-0.832441,0.467978,-0.930756,0.553295,0.625568,-0.663511,-0.488633,
-0.207884,-0.524394,-0.488368,-0.00938343,0.508487,0.500286,0.363996,0.123046,0.977604,-1.0158,0.571374,-0.86962,0.971062,0.431615,-0.455073,0.0207411,0.385579,0.47243,-0.138277,1.00096,0.513497,-0.82048,-0.14236,0.338111,0.881947,0.607358,
-0.336992,-0.44564,-0.68533,0.415106,0.720947,-0.271836,0.516372,-0.468231,0.755735,0.677257,0.560102,0.109385,0.472068,-0.882075,1.01868,1.02128,-0.941087,-0.821698,-0.00130848,0.0887514,-0.298263,-0.436162,-0.667124,0.6823,-0.693229,0.350499,
0.196494,-0.961628,0.793036,0.225613,-0.175328,0.613634,0.589027,0.0536294,-0.490238,-0.742262,-0.159745,-0.563626,0.53992,-0.693276,0.796308,0.940178,-0.539209,-0.547384,-0.706388,0.861799,0.26628,-0.905482,1.08266,-0.542127,-0.430975,0.304489,
0.203438,-0.278216,-0.952859,0.00816096,0.131415,0.300575,-0.957689,-0.127441,-1.34773,-0.471751,0.877394,-0.408154,0.805556,0.817059,-0.496696,-0.160847,-0.114253,0.128539,-0.435152,-0.566136,-0.94604,0.494658,0.434693,-1.0102,-1.07476,-0.299334,
-0.64026,0.537909,0.233463,-1.73867,0.815787,0.784842,1.31045,0.209642,1.35134,-0.577279,0.103144,1.73862,0.959069,-0.113999,-0.00267236,1.11881,-0.244692,0.326762,-0.248789,-0.0275586,-0.520523,0.403673,0.389632,0.233593,-1.60396,0.158537,
-0.519822,0.745379,-0.0527147,-1.11353,0.815082,0.0941782,0.920636,-1.00273,2.66282,0.470551,-1.07033,1.40723,0.797861,0.378124,0.648805,0.0506797,0.899437,0.720779,0.286402,0.923768,0.77088,0.72585,0.101326,0.49095,-1.67982,-0.195858,
0.412084,0.938087,-0.753794,0.0228742,-0.390771,0.353434,0.072641,0.959237,-0.573562,0.143122,1.23502,0.0902265,1.02983,-0.661176,0.708526,-0.243202,-0.476382,0.71339,-0.561602,-0.425884,0.378354,0.940165,0.125049,-0.137874,-0.833059,-0.832369,
0.524686,-0.510509,-0.779936,0.0439112,-0.848251,0.0162874,-0.0262792,-0.457085,-0.200495,0.832195,-0.483632,-0.0812703,-0.407693,-0.137365,-0.799756,0.394946,0.761992,0.905511,-0.451227,0.239451,-0.051837,0.947854,0.320513,-0.627162,-0.565569,0.0244613,
-0.618297,0.672641,0.113219,-0.161418,-0.701535,-0.195788,-1.04602,-0.0387933,0.227078,0.299077,-0.0703691,-0.652184,0.87306,0.176357,-0.274104,-1.76999,1.10806,1.00158,0.315748,-1.14524,0.956303,0.401587,0.110879,-0.869803,0.101565,-0.646765,
-0.221494,-0.257535,-0.458972,1.11508,-0.0805737,-0.140752,-0.0512625,-0.628424,0.09248,-0.27857,0.894206,-0.510408,0.502293,-0.123711,0.640509,-0.334321,-0.686327,-0.0052135,0.803933,0.537751,0.352133,-0.465877,0.709768,-0.566618,-0.290379,-0.322133,
0.359601,0.239534,-0.324323,-0.281392,0.0508586,0.117137,-0.317235,0.370152,-0.123502,-0.464061,0.0725089,-1.66689,0.123903,1.14685,0.404328,-1.42296,-0.510646,1.19847,-0.288146,-1.43399,0.682838,0.474488,0.298662,-1.58066,-1.27755,0.134126,
-0.986789,-0.0711623,-0.614385,0.354466,-0.895281,0.636674,0.351459,-0.0708912,-0.707936,-0.343773,0.630962,0.173408,-0.681821,0.501545,-0.550125,-0.173327,1.0247,1.02814,-0.233618,0.152976,-0.285878,0.0362351,-0.675966,0.445476,-0.0398896,1.09593,
-0.870021,-0.581855,0.0307818,0.725435,1.46681,1.03532,0.161714,-0.342157,0.110373,0.148295,0.857605,-0.199962,-0.396714,-0.0154243,1.31466,0.351864,-0.567191,0.569446,0.720854,0.937792,-0.0273255,0.686263,-0.216735,1.25522,2.41584,-0.46186,
-0.33127,-0.902571,0.387654,0.85784,-0.132552,-0.179172,-0.688834,-0.723791,-0.0186239,0.0866885,-0.690302,0.652979,-0.0437233,-0.595289,-0.102706,-1.11601,-0.946502,0.353813,-0.369511,-0.109507,0.797191,0.785483,0.0465031,-0.833187,-1.08209,-0.478903,
0.876349,0.103119,0.425978,-0.631375,-0.820158,-0.710369,-1.09296,0.934009,-1.3854,0.282405,0.24479,-1.04764,0.872595,-0.723903,0.085142,-2.20751,-0.227012,1.01202,0.615493,0.477147,-0.549176,-0.318487,-0.771322,0.529044,-0.874669,0.110275,
0.881521,-0.610856,-0.182517,0.640354,-0.109023,-0.0759636,-0.639998,0.232511,0.498294,-0.290301,0.0769999,0.688454,0.113248,-0.536465,0.863362,0.187178,-0.134679,-0.485375,-0.805253,-0.129963,0.382392,-0.248385,-0.590303,0.456771,-0.958539,-0.648394,
0.892994,-0.737047,0.829189,0.0148883,0.954263,0.4735,0.552409,-0.60368,-0.35546,-0.751982,0.992161,-0.990647,0.662163,-0.683751,-0.0371816,-0.753521,0.631355,-0.48125,-0.185299,-0.622927,0.804639,-0.0287606,0.716314,-0.376604,0.0495162,-0.940947,
0.872808,0.498621,0.458003,-0.930793,1.83516,-0.621922,-0.451324,0.0410822,1.03066,0.135729,-0.744516,0.161768,-0.152833,-0.233131,0.949771,0.878323,0.420655,-0.792445,0.0489243,0.813962,0.00567795,0.666647,-0.595854,-0.0192732,1.14375,-0.0105145,
0.504518,-0.185999,-0.187248,0.363806,0.373304,-0.816027,0.0160113,0.196222,0.745559,-0.0509976,0.733676,0.679224,-0.715798,-0.541169,0.0304817,0.315929,0.401653,0.608413,-0.236716,-0.824932,0.157641,0.582695,0.182045,-0.794926,-0.111685,0.0773946,
0.874028,0.5167,-0.632796,1.00981,-0.977437,-0.247882,0.56645,0.0598901,-0.7105,0.210838,-0.432296,-1.14178,0.385926,-0.117256,-0.333565,-0.539063,-0.137327,0.777128,0.108211,0.786841,0.085826,0.245407,0.166818,-0.135025,-0.48065,-0.825994,
-0.474736,0.5528,-0.67062,0.0619765,0.584717,0.707779,0.72664,0.0134199,-0.130467,0.777924,-0.723968,1.01504,-0.201835,-0.515553,-0.372282,0.420303,-0.536774,-0.716472,0.610428,1.02776,-0.335053,-0.429556,1.22852,0.222888,2.12076,-0.387311,
-0.494994,-0.691663,0.350814,0.279546,0.157613,0.765538,0.308489,0.693227,-0.600667,-0.0275194,-0.793133,0.0816986,0.458399,-0.672058,-0.148838,1.00604,0.232082,0.946671,-0.488319,-0.0149214,-0.431077,0.899593,-0.50664,0.0438018,1.62534,0.89018,
0.124662,-0.529961,0.371856,-0.475505,1.06463,0.185837,-0.0118237,-0.393686,-0.593428,0.539961,0.555116,0.242477,-0.520311,-0.832583,-0.415489,-0.0817316,0.439872,0.893956,-1.01371,-0.0640268,0.0284833,0.850473,0.382134,0.0688901,0.995438,-0.383217,
-0.931887,0.244763,0.924799,1.0794,0.885906,-0.37497,-0.133324,0.606699,-0.251419,-0.834768,-0.530006,-0.234749,-0.510088,-0.256148,0.664228,0.801001,-0.515899,-0.284892,0.503351,0.0941174,0.673846,0.733191,0.658348,0.124895,-0.168776,0.452397,
0.989747,0.717247,-0.863608,0.767593,-0.912696,-0.280283,0.570216,0.468806,-0.460845,0.748284,-0.41585,-0.673335,0.193947,0.669367,0.613383,-1.06226,-0.79055,-0.596127,-0.173038,-0.375485,0.74239,-0.553751,0.637328,-0.732902,-0.33764,1.20342,
-0.126475,-0.0298483,-0.264181,0.12826,0.560963,0.501891,0.748328,-0.0299715,0.549582,-0.182146,-0.283413,0.408001,0.868212,-1.00923,1.02398,0.815035,0.0150422,-0.24298,-0.579387,-0.11845,-0.266114,-0.946862,0.123775,0.760774,-0.510224,1.1134,
-0.445753,-0.138405,0.529718,0.289637,-0.306335,-0.14321,0.516442,-0.298259,-0.744957,-0.188348,0.631343,-0.109737,-0.23554,0.0337241,0.76902,0.246087,0.331186,0.826216,0.855122,0.836867,0.717167,0.639064,0.305168,0.366703,-0.255507,-0.189467,
-0.236462,-0.0259472,-0.591385,0.410053,-0.717535,0.691687,-0.3154,0.695347,0.604613,-0.345762,0.834481,-0.193778,-0.715931,-0.192623,-0.771171,0.689079,-0.221372,-0.0694319,0.218107,-0.173429,-0.751796,-0.0526538,0.950054,0.220327,0.522797,0.493893,
0.496998,-0.425462,0.866561,-0.620648,0.739312,0.526782,0.976227,0.262959,1.04384,0.427131,-0.0954197,0.487572,-0.565066,0.797449,0.241627,0.819758,0.775596,0.719432,0.00175257,0.969153,-0.977893,-0.0903606,0.778171,0.00948874,1.42525,0.690979,
-0.641144,-0.00370244,-0.897689,-0.469648,1.02562,-0.885111,0.234143,-0.967235,0.78394,-0.24869,0.221783,0.854223,0.278952,-0.269895,-0.684964,0.732237,0.419471,-0.134398,0.600141,0.392923,-0.417429,-0.873565,1.05649,0.909294,0.687904,1.13752,
-0.739245,0.215073,-0.359465,0.780648,0.215313,0.803036,-0.846612,0.74111,-0.947248,-0.297622,0.303116,-0.3536,-0.215561,-0.198163,-0.824978,-0.50169,0.62094,-0.879666,-0.839464,-0.984462,-1.12598,-0.96493,-0.163847,-0.876991,-1.09323,-0.117406,
-0.325882,0.882413,-0.237584,-0.239609,0.396716,-0.128132,0.866231,0.0530962,0.64674,-0.275913,-0.758336,-0.948979,-0.128436,0.615601,0.353334,-1.10978,0.812215,0.868382,0.671868,0.603719,0.577498,-0.803643,-0.425468,-0.875141,0.0612579,0.751265,
0.0349847,-1.25575,-0.093557,0.396764,4.07136,1.08251,2.89447,-1.39735,1.92503,-0.73718,-1.12167,-0.0798252,0.86671,-0.91768,0.467555,-0.522268,1.22626,1.03618,0.868566,-0.756421,-0.197723,-1.02858,1.15708,0.0423619,-3.27291,0.0717579,
-1.46821,-0.290902,2.71826,0.462619,0.337208,0.694824,-1.13987,-0.536243,4.04189,-0.145879,-0.182686,1.45969,-0.392137,-0.568748,-0.0576349,0.227237,-0.39858,0.687015,-1.87151,-0.447048,-0.417196,0.416741,0.454911,0.708768,-3.26391,-0.0407029,
0.719666,-0.256171,0.107711,-0.21743,0.382571,0.95889,-0.897504,-0.570023,0.12377,0.924829,0.586964,0.53959,0.78187,-0.421471,-1.10525,-0.0817904,0.246873,-0.279425,-0.713509,0.757173,-0.453719,0.472264,0.0484161,0.589675,-0.617155,-0.711651,
0.169117,-0.419922,0.741765,0.037802,0.859684,-0.21854,-0.774879,0.124489,0.167036,0.0664452,-0.195369,-0.424816,-0.338522,0.325306,-0.387386,0.867387,-0.0851268,0.304027,-0.0945181,-0.678626,-0.149403,1.03584,-0.70146,-0.340877,0.668115,-0.0827795,
0.57651,0.0455943,-0.805506,0.180111,-0.926353,0.879384,-0.191729,-0.656906,0.254007,-0.539458,-0.487398,-0.613048,-0.832598,0.775379,-1.36289,-0.0233383,0.851961,0.756786,0.111874,-1.09578,-0.349089,-0.363503,-0.748022,-0.433802,-0.113821,0.267622,
0.227066,0.713022,-0.811161,-0.260482,0.551507,0.613189,-0.126106,0.818496,0.390303,0.347412,-0.733095,-0.0410893,0.197895,0.469613,-0.0787753,0.189233,-0.0673925,0.189371,-0.40458,-0.122982,0.659865,0.735974,0.223801,0.947654,0.595323,1.07684,
-0.448333,0.132979,0.0281145,0.175525,0.137918,0.840141,-1.51797,-0.0575129,-0.807094,-0.751773,0.665148,-0.952155,0.957944,0.0210154,-0.906369,-1.1825,-0.641498,0.892846,0.158077,0.0954339,0.200974,0.854926,-0.737203,-1.81085,1.16988,0.770512,
0.352123,-0.706384,-0.562079,-0.341821,0.804467,0.987651,-0.215694,-0.740195,-0.393001,0.687423,-0.508469,-0.0520738,-0.0198998,0.238275,-0.917357,0.0501326,0.0797728,1.09636,0.0504789,-0.130151,0.22931,0.203559,0.245944,-0.792168,0.316888,-0.0105664,
-0.602282,-0.548236,-1.44142,-1.09943,0.921255,0.000652046,-0.55373,-0.973583,-0.253681,-0.143517,-0.0222776,1.08586,1.09746,0.0346628,0.772899,0.794797,-0.919875,1.13947,-0.473292,0.101541,-0.536736,0.163093,0.555969,1.42704,-0.0708697,0.199334,
0.393339,0.765698,0.751535,0.0789859,-0.615517,0.355942,-0.807297,-0.639031,0.554002,0.224644,0.0661137,-0.762498,0.386241,0.687918,-0.334069,-0.0415684,-0.874886,0.108158,-0.770059,0.573164,0.883618,0.95311,-0.940959,-0.673488,0.10308,0.512821,
-0.34219,0.874959,0.199349,0.520696,-0.743094,0.977876,-0.151338,0.980971,-0.497235,-0.714849,-0.0498044,-1.32469,1.15631,-0.68443,-0.256245,0.469006,1.17066,0.384935,0.0605052,-0.916801,-0.42895,-0.557579,-0.00851305,-1.44544,0.805799,0.120998,
-0.231923,0.666416,-0.425289,0.273451,0.577476,0.900308,-1.03807,-0.4268,0.745477,-0.726221,-0.123513,-1.08468,-0.135805,-0.707577,0.130713,-0.222903,-0.441433,0.91714,1.09816,0.172985,-0.307986,1.06007,-0.914582,0.328458,0.963477,0.919624,
0.15532,-0.559077,0.945678,0.895492,-0.374694,-0.533838,0.0475602,0.0710434,0.87536,-0.677511,-0.439496,0.327525,-0.468227,-0.455712,-0.923311,-0.236333,0.185077,0.933175,-0.235904,-0.0228799,-0.672179,0.37502,0.820291,-1.0988,0.82733,-0.455712,
-0.380059,0.661083,-1.40672,-1.31032,1.32927,0.951675,1.05121,-1.05325,1.12176,-0.166277,-1.06774,0.30562,-0.641799,0.287695,-0.419015,0.737891,-0.0648389,-0.0889313,0.318257,0.00547082,-0.559076,-0.189852,0.245769,0.936762,1.10292,-0.808897,
-0.285168,-0.58653,-0.348956,0.797779,-0.252361,-0.191236,0.367135,0.190024,0.888039,0.381837,0.64249,-0.50883,-0.382379,0.0980489,0.702507,0.796398,-0.380052,0.469325,-0.49072,0.241409,0.283981,-0.523118,0.780538,0.580326,1.01484,0.324768,
0.0373139,-0.905077,0.179509,-0.768161,0.595361,0.616078,0.597597,0.870588,-0.866734,0.95369,0.856384,-0.415512,0.629457,0.233263,0.638602,0.401735,0.848149,-0.495739,-0.470875,0.319605,-0.474391,-0.0353957,-0.615341,-0.921017,-0.921777,0.0457028,
-0.934249,-0.158761,-0.437018,-0.108268,0.524875,0.357658,-0.569346,-0.493761,0.982863,-0.374075,-0.481094,-0.288507,-0.575791,-0.844897,0.952909,0.919419,-0.251927,-0.0162761,-0.713163,0.247622,0.373388,-0.76315,0.203606,-0.379814,0.936794,-0.393381,
0.761159,0.471836,-0.697583,-1.08406,0.463332,0.87552,-0.389153,0.913035,0.196193,-0.171585,0.514616,0.613479,-0.577251,0.333955,-0.0892491,0.802178,-0.468037,0.304195,-1.01252,0.0123209,0.117604,-0.664961,-0.158521,0.456567,1.23581,-0.0571588,
0.395488,0.497504,-0.644256,0.092203,0.0230694,0.844312,0.586564,0.659853,0.409375,0.0984141,0.441896,-0.426389,0.655781,0.0130779,0.50306,0.492524,-0.676747,0.3936,-0.80608,-0.347258,0.0836693,0.16169,0.660847,0.306424,0.94736,0.593572,
-0.128388,0.905655,-0.0581503,0.916499,0.863511,0.148304,0.692814,-0.147333,0.723151,-0.456197,-0.388722,-0.215235,-0.118876,1.12201,-0.555335,0.573053,0.695798,0.21037,0.223596,0.169375,0.0992422,0.0783101,0.847222,0.313924,0.877994,0.577785,
0.106327,0.812085,-0.473259,-0.684031,0.332509,0.627479,-0.723226,-0.532739,0.464113,0.0990929,0.0619321,0.387101,0.563429,1.0187,0.746601,-0.853724,-0.294264,-0.41711,-0.580945,0.0848401,0.495948,-0.0278076,0.138305,-0.555644,-0.269076,-0.395649,
-0.55577,0.2298,0.672684,-0.188716,1.0481,0.133178,-0.627978,-0.125103,0.0972003,-0.985059,0.26268,-0.131437,0.542326,-0.336229,0.797791,-0.895513,0.492786,-0.504331,-0.823291,0.708519,-0.430881,-0.881449,-0.202402,0.64944,-0.292581,0.98522,
-0.547253,-0.0125804,-0.686297,0.884443,0.643001,-0.817,-0.933037,-0.044373,-0.456214,-0.588434,0.643849,0.767343,0.101697,0.252102,0.422915,-0.440496,-0.720617,0.802251,-0.82616,-0.0649453,0.274275,-0.373503,-0.077397,-1.12157,0.0773936,0.283769,
-0.844685,-0.27117,-0.46057,-0.0375056,0.393974,0.862701,0.61527,0.288574,-0.598779,0.0214016,0.316094,-0.524155,0.943452,-0.420294,-0.74925,-0.666561,0.0471498,0.4559,-0.115149,0.309832,-0.631267,-0.201901,-0.138541,0.599064,0.0674298,-0.0315494,
0.910156,0.772521,0.502757,-0.0744865,1.62354,0.322703,1.05759,-0.590981,-0.224645,0.206204,0.697795,-0.191024,0.104271,0.331026,-0.00726233,0.222076,-0.32487,0.994319,-0.0271373,0.64805,-0.44956,-0.188175,0.241919,-0.555092,1.33114,0.685976,
-0.0859563,-0.0220661,0.0636065,-0.231289,1.03699,0.370889,0.286799,0.00312987,0.628728,0.336576,-0.91887,-0.0387453,-0.0389333,-0.236534,-0.386246,-0.512555,0.747759,-0.869353,-0.198682,1.05628,0.662998,-0.527269,-0.633521,-0.975004,-0.582962,0.944412,
-0.809604,-0.884252,1.06128,-0.709131,-0.84832,-0.758462,-0.158603,-0.391863,-0.510535,-0.468017,0.663357,-0.551908,0.754371,-0.0367572,0.586593,0.367738,0.725364,-0.718132,0.668937,-0.727192,-0.376376,0.0322883,-0.00816453,-0.7266,-0.251241,-0.62273,
0.641518,0.149365,0.0377027,-0.0455595,-1.01575,-0.642123,-0.620917,0.934312,-0.43159,0.764909,-0.945687,0.194574,-0.257272,-0.047325,0.0485696,-0.900324,-0.556133,-0.861489,-0.359083,-0.453055,-0.603456,0.816147,-0.933148,0.639603,-0.586758,0.425631,
0.403178,-1.14843,-2.88753,-2.30161,2.94079,0.492539,-0.272801,-0.746667,1.14299,-0.582574,-1.13943,0.637149,0.707728,-0.487006,0.989798,0.687992,0.177429,1.63539,1.70776,0.287331,-0.241651,0.249588,0.0461777,0.721116,-0.679891,0.552079,
-1.11438,-0.559863,1.59909,1.62588,-4.25525,0.0035124,1.7587,-0.963698,3.48056,0.167327,-2.20034,1.49582,0.223238,-0.9914,0.127719,-0.157882,0.334001,1.15476,-0.738512,0.100738,0.0396816,-0.343202,0.360834,-0.128949,0.298436,-0.225825,
0.674143,0.552328,0.546087,0.257351,-1.46442,0.313304,-1.10971,1.05336,-1.28912,-0.374483,0.779039,-0.0478237,-0.645474,-0.936094,-1.32878,-0.692893,-0.87575,-0.203241,0.547269,-0.11096,-0.716199,-0.627147,0.587388,0.751943,0.790365,0.731797,
0.889382,-0.0435413,0.672827,0.382312,0.285205,-0.735547,-0.65399,0.297058,0.373286,0.117879,-0.0538116,-0.0456871,0.10003,0.59379,0.0234547,-0.35951,0.634435,0.377939,-0.0731933,-0.97227,-0.51438,-0.499677,0.338243,0.419105,-0.687242,-0.141064,
-0.345417,0.479886,-0.475857,0.0605018,-1.31226,-0.0468118,-1.65912,0.767816,-0.396679,0.703078,0.734923,-1.64965,0.534396,-0.592066,-0.21563,0.647424,0.20261,0.71615,-0.284556,0.329394,-0.402225,0.168281,0.950773,-1.08648,0.727914,0.268125,
0.122413,-0.466397,-0.987667,-0.827377,-0.952626,-0.665438,-0.905937,-0.856827,0.665219,0.826872,-0.570769,-1.01518,-0.461986,0.61583,-1.13709,0.172802,-0.675486,-1.04668,-0.437023,0.9695,-0.483584,-0.0822545,0.466232,0.280763,-0.58434,0.415319,
0.326977,-0.909769,0.498983,-0.547674,-4.50591,0.0983881,-1.14695,-0.591966,-1.78707,0.186125,1.08755,-2.07382,-0.946827,1.16274,-2.56763,-1.65607,0.719997,2.73333,-0.39788,-1.02632,-0.82022,1.65149,-1.2147,0.563512,0.198765,1.3515,
-0.614733,-0.169545,-0.173047,0.457797,-1.73605,-0.599547,0.180282,0.545878,-0.0441806,0.478517,0.602961,-0.0756439,0.626588,-0.665507,0.346446,-0.756016,0.0296102,0.0407669,0.276363,-0.0941311,-0.779308,-0.637815,1.02003,0.417723,-0.514384,0.585558,
0.685041,-0.677137,-1.52665,-1.03814,3.46657,-0.933941,0.836655,0.877475,3.12346,-0.606434,-0.979966,1.25294,1.86533,0.615543,0.496328,0.632435,-1.06529,-0.924226,-0.831768,0.541067,0.12833,0.554958,0.759071,1.23517,1.07885,0.312447,
-0.091621,-0.0917853,0.280747,-0.49119,-0.155117,-0.54593,-0.956553,-0.742071,-0.78047,0.685979,-0.738758,-0.69274,-0.631407,-0.225658,-0.665245,-0.366412,0.491572,-0.551914,-0.774856,-0.617175,0.228926,-0.870633,-0.790254,-0.400216,-0.0248076,0.388876,
0.330374,-1.14596,-0.0134113,1.34862,-2.2797,0.301416,-1.00827,0.191033,-1.70024,0.686283,0.129291,-1.22892,-0.813885,0.839413,-1.53944,-0.134284,0.849478,1.71391,1.03954,-0.712451,-0.578145,1.10762,0.295641,-0.0699253,1.11397,1.06331,
0.422014,-0.321688,0.644878,0.172878,-1.19914,-0.668643,0.480161,-0.588421,0.390256,-0.436659,0.986081,-0.662107,-0.719161,-0.601729,-1.05945,-0.45649,0.833954,1.35972,-0.788514,-0.754794,0.694645,-0.550343,0.757765,0.397124,0.788645,0.573754,
0.642832,0.41473,0.118657,-0.10397,-0.66673,-0.793293,-0.967764,-0.367696,-0.867302,-0.346073,-0.755286,0.45949,-1.0941,0.902689,-0.596236,-0.383071,0.420791,-0.429891,0.914644,-0.633712,-0.00850422,-0.933938,0.40227,0.537443,-0.597339,-0.981152,
0.107211,-0.559416,-0.697574,-0.642047,2.30499,-0.873387,0.335386,0.893205,1.52854,-0.0988199,0.123067,1.28837,2.43535,-0.856061,0.867349,1.78933,-0.0277105,-0.99084,-0.998023,0.922992,0.475933,-1.01185,0.959386,0.697102,0.354118,-0.957772,
-0.292128,-0.441706,0.172795,0.477866,-0.722096,0.348433,-0.622015,0.985813,-0.230303,0.365726,0.980789,0.359694,-0.201335,-0.0933159,0.308378,0.0141499,-0.120499,-0.149292,-0.473411,-0.552731,-0.398256,0.128331,-0.030684,-0.251458,0.338077,-0.419823,
-0.298713,-0.989459,0.955114,0.101497,-0.0924364,0.00867036,-0.36601,-0.477151,0.229196,-0.722544,-0.000867586,-0.931096,0.109792,-0.582617,-0.0703987,0.0712423,-0.0841496,0.587093,0.166801,-0.0444606,0.65202,-0.213678,-0.80631,0.542035,-0.506997,0.765273,
-0.724771,-0.788661,-1.21041,-0.489499,2.47607,-0.263091,0.703613,-0.477669,1.21522,-1.01139,0.538414,-0.22055,1.66208,-0.81137,-0.0800997,-0.497984,0.189448,-0.812331,-0.555177,0.665168,-0.122301,-0.485953,0.233061,0.596089,1.33423,0.0976073,
-0.51742,-1.00055,0.14258,0.20941,2.18801,0.636505,0.689881,0.431664,1.47789,-0.459048,0.879804,0.864443,0.583957,0.86556,1.13507,-0.532507,-0.917742,-0.612836,-0.788914,-0.495502,0.793122,-0.613363,0.79461,0.632249,1.3783,-0.600035,
-0.786276,-0.884673,-0.0331824,-0.599662,-0.404497,0.468198,0.373716,0.211217,-0.151509,0.275911,0.889669,0.93034,0.28288,0.643123,-0.216676,-1.05095,0.0511332,0.3622,-0.723798,-0.00568414,0.0629329,0.617142,0.00136937,-0.0582484,0.13337,0.618143,
-0.167923,0.751403,0.523017,-0.682197,-0.857104,0.927311,-1.38872,-0.716277,-0.521027,-1.02278,-0.799691,-0.23612,-0.149005,-0.531304,-0.698478,0.208236,0.99484,0.984501,-0.127228,0.260697,0.963515,-0.659025,-0.251787,1.03105,1.38942,-0.219098,
0.00664295,-0.116303,0.0616,-0.486613,-0.87119,0.193763,-1.2465,-0.392037,-0.940857,0.924193,0.243048,-0.602147,-0.172055,0.0570362,-1.40877,-0.782057,0.865476,0.115356,0.509104,0.0123859,0.491937,-0.297316,-0.749094,-0.474051,1.04759,0.344879,
0.494525,-0.0382588,-0.695208,0.804252,0.450545,-0.866064,0.263188,0.911103,0.967128,0.0237169,-0.825847,0.219332,-0.0412313,0.676668,0.934373,0.0423213,-0.727371,0.00704114,-0.699419,-0.521736,0.057272,-0.273062,-0.364051,0.277788,-0.158033,-0.998604,
0.994786,0.469519,0.447905,0.528017,0.454673,-0.593547,-0.859859,0.906921,-0.406187,0.820321,0.877245,-0.0633316,-0.282653,-0.702395,0.200109,-1.1551,-0.0971116,1.28259,0.899196,-0.685289,-0.313536,-0.129058,0.633314,0.123374,0.919854,-0.618491,
0.546216,-0.8953,0.551072,0.670498,-0.773113,-0.0983147,-0.863823,0.0974119,-0.211706,-0.575222,0.959588,0.53303,0.037798,0.79216,0.352095,-0.979262,0.391853,0.688469,0.213034,0.912938,-0.611264,-0.0639997,0.380254,-0.492672,0.311148,-0.875899,
0.469519,-1.14244,-0.426091,-0.0296583,0.343507,-0.995831,-0.90397,0.97682,0.516162,-0.57769,0.820936,0.454273,1.56306,-1.25083,1.07834,0.92168,-0.793811,-1.36598,-0.265824,0.111427,-0.265897,-0.666675,0.664153,1.109,0.329489,-1.21959,
-0.493964,0.545743,-1.00653,0.471146,0.993269,-0.52001,-0.419,0.470655,0.41345,0.705114,0.0825356,0.791648,-0.196442,-0.83395,-0.0926389,-0.66489,-0.790826,0.123076,-0.336978,-0.233793,0.368635,0.599518,1.08378,-0.494669,0.678181,-0.64351,
0.424265,0.0818872,-0.0511349,0.603811,-0.0691905,-0.856294,-0.628339,-0.376385,-0.42079,-1.04748,-0.206199,0.564336,-0.279811,0.0601895,-0.0273913,-0.845051,-0.931773,-1.11679,-0.918392,0.081413,0.533446,-0.252594,0.537492,0.212888,0.847397,-0.0804475,
0.929097,0.011899,0.362441,-0.412306,-0.155097,0.0399575,-0.763527,0.410425,-0.0982549,-0.228375,0.125045,-0.28299,0.406513,0.859326,0.111317,-1.05421,0.78359,-0.359028,0.660332,0.782433,-0.177485,1.08448,0.916448,-0.516181,-0.0714314,0.110987,
0.803943,-0.556148,-2.67959,1.5277,5.42647,-0.236124,2.70041,0.163806,-6.61961,-0.950438,-1.73962,1.61099,-3.173,-1.07137,1.69983,2.47029,0.385279,0.194306,1.56571,1.15194,-0.237572,-0.465631,0.545596,-0.606419,-0.634671,-1.16455,
-0.449557,-1.25275,1.6854,-2.37727,-6.7201,-0.482804,2.00249,-0.124632,4.27782,0.0760199,-0.0357311,-0.093207,-2.90862,-0.339044,0.89158,0.872058,0.0117347,-0.229257,0.146641,0.966347,-1.36038,0.236361,1.10615,-0.164321,-0.383054,-1.16951,
